svm_type c_svc
kernel_type rbf
gamma 0.028933584758977834
nr_class 2
total_sv 253
rho 74.516607870041724
label 1 -1
probA -1.9853858681565135
probB 0.15429507197978093
nr_sv 122 131
SV
1896.1914107643713 1:-2.2852448 2:-0.93386189 3:1.0587033 4:0.65370004 5:0.43940796 6:0.22007658 
1325.858887179875 1:-2.2852448 2:-0.93386189 3:-0.2481227 4:-0.66123903 5:0.011552108 6:-1.1300865 
671.93616754520565 1:0.94341413 2:2.2945152 3:1.494312 4:-0.66123903 5:0.86726381 6:-1.1300865 
1896.1914107643713 1:0.94341413 2:0.14226382 3:0.62309464 4:0.21538702 5:0.011552108 6:-0.22997777 
1896.1914107643713 1:0.94341413 2:-0.93386189 3:-1.11934 4:-0.222926 5:-0.8441596 6:-0.68003212 
441.84604296287495 1:-2.2852448 2:-0.93386189 3:0.18748597 4:0.21538702 5:0.43940796 6:-0.22997777 
1896.1914107643713 1:-0.1328055 2:0.14226382 3:-1.11934 4:-0.222926 5:-1.6998713 6:-0.68003212 
314.87364914789742 1:-0.1328055 2:1.2183895 3:0.62309464 4:-1.0995521 5:0.86726381 6:-0.68003212 
1893.2006237269256 1:-0.1328055 2:1.2183895 3:0.62309464 4:-1.0995521 5:0.011552108 6:-0.68003212 
1896.1914107643713 1:-2.2852448 2:-0.93386189 3:1.0587033 4:-0.222926 5:1.2951197 6:0.22007658 
1896.1914107643713 1:0.94341413 2:1.2183895 3:-0.68373136 4:0.21538702 5:-1.2720155 6:0.67013092 
310.44542941989283 1:0.94341413 2:1.2183895 3:1.494312 4:0.65370004 5:0.86726381 6:0.22007658 
1896.1914107643713 1:-1.2090251 2:0.14226382 3:-0.68373136 4:-0.222926 5:-0.41630374 6:-0.68003212 
1896.1914107643713 1:0.94341413 2:-0.93386189 3:-1.11934 4:-1.5378651 5:-1.6998713 6:-1.1300865 
1041.0205285345196 1:-0.1328055 2:0.14226382 3:0.62309464 4:-1.0995521 5:0.86726381 6:-0.68003212 
1663.3749006263868 1:-0.1328055 2:-0.93386189 3:1.494312 4:0.65370004 5:0.86726381 6:0.22007658 
1896.1914107643713 1:-0.1328055 2:0.14226382 3:0.62309464 4:-0.66123903 5:0.86726381 6:-1.1300865 
1896.1914107643713 1:0.94341413 2:1.2183895 3:-1.11934 4:-1.0995521 5:-0.8441596 6:-1.5801408 
1896.1914107643713 1:-2.2852448 2:-0.93386189 3:1.494312 4:0.21538702 5:0.86726381 6:0.67013092 
863.4670525152502 1:0.94341413 2:0.14226382 3:1.0587033 4:-1.0995521 5:0.43940796 6:-0.68003212 
861.69787911973458 1:-0.1328055 2:1.2183895 3:-0.2481227 4:0.21538702 5:0.011552108 6:-0.22997777 
1896.1914107643713 1:0.94341413 2:-0.93386189 3:-1.5549487 4:-1.0995521 5:-1.2720155 6:-0.68003212 
582.11758496748143 1:-2.2852448 2:-0.93386189 3:0.18748597 4:-1.0995521 5:0.43940796 6:-0.68003212 
1896.1914107643713 1:-0.1328055 2:-0.93386189 3:-0.68373136 4:-0.222926 5:-1.2720155 6:-0.68003212 
1896.1914107643713 1:-0.1328055 2:-0.93386189 3:-1.5549487 4:-0.66123903 5:-1.2720155 6:-0.22997777 
1108.4675356657845 1:-1.2090251 2:-0.93386189 3:-1.11934 4:1.5303261 5:-0.8441596 6:1.1201853 
1794.9305495622114 1:-0.1328055 2:0.14226382 3:-1.11934 4:-0.222926 5:-1.6998713 6:0.22007658 
946.62965246964018 1:-0.1328055 2:-0.93386189 3:-1.5549487 4:-0.222926 5:-1.2720155 6:0.22007658 
302.3771310627626 1:-1.2090251 2:-0.93386189 3:-0.2481227 4:-1.0995521 5:-0.41630374 6:-1.5801408 
1420.1977078965547 1:-2.2852448 2:-0.93386189 3:1.0587033 4:1.0920131 5:1.2951197 6:1.5702396 
1760.7197277515961 1:-0.1328055 2:-0.93386189 3:-0.2481227 4:1.5303261 5:-0.8441596 6:1.1201853 
1164.5775380178216 1:0.94341413 2:0.14226382 3:-0.68373136 4:0.21538702 5:-1.2720155 6:-0.22997777 
1896.1914107643713 1:0.94341413 2:2.2945152 3:0.62309464 4:-0.66123903 5:0.011552108 6:-1.1300865 
1896.1914107643713 1:0.94341413 2:1.2183895 3:-1.11934 4:-0.222926 5:-1.6998713 6:0.22007658 
1896.1914107643713 1:-0.1328055 2:1.2183895 3:0.18748597 4:-1.0995521 5:0.43940796 6:-0.68003212 
1896.1914107643713 1:0.94341413 2:0.14226382 3:-0.68373136 4:-0.222926 5:-1.2720155 6:0.22007658 
1896.1914107643713 1:-0.1328055 2:0.14226382 3:0.18748597 4:-0.66123903 5:0.43940796 6:-1.1300865 
1896.1914107643713 1:-0.1328055 2:0.14226382 3:-0.68373136 4:-0.222926 5:-0.41630374 6:0.22007658 
1896.1914107643713 1:-2.2852448 2:-0.93386189 3:-0.2481227 4:-1.0995521 5:0.011552108 6:-0.68003212 
1896.1914107643713 1:0.94341413 2:1.2183895 3:-1.11934 4:0.65370004 5:-1.6998713 6:0.22007658 
680.26466661417396 1:0.94341413 2:1.2183895 3:0.62309464 4:-1.5378651 5:0.86726381 6:-1.1300865 
1896.1914107643713 1:0.94341413 2:-0.93386189 3:-0.2481227 4:-0.222926 5:0.011552108 6:-0.68003212 
1896.1914107643713 1:0.94341413 2:1.2183895 3:-0.2481227 4:-1.5378651 5:0.011552108 6:-1.5801408 
1642.0968144971282 1:0.94341413 2:2.2945152 3:1.494312 4:-0.66123903 5:0.86726381 6:-0.22997777 
1896.1914107643713 1:0.94341413 2:-0.93386189 3:1.494312 4:1.0920131 5:0.86726381 6:1.5702396 
340.97202420756048 1:0.94341413 2:-0.93386189 3:-0.68373136 4:1.5303261 5:-0.41630374 6:1.1201853 
1896.1914107643713 1:0.94341413 2:0.14226382 3:-0.2481227 4:-0.222926 5:0.011552108 6:0.22007658 
1896.1914107643713 1:0.94341413 2:1.2183895 3:0.62309464 4:-1.0995521 5:0.86726381 6:-0.68003212 
1655.6770440230944 1:-1.2090251 2:-0.93386189 3:-1.11934 4:1.0920131 5:-1.6998713 6:1.5702396 
898.80710526939754 1:-1.2090251 2:-0.93386189 3:1.494312 4:-1.0995521 5:0.86726381 6:-0.68003212 
1896.1914107643713 1:-1.2090251 2:-0.93386189 3:0.18748597 4:-1.5378651 5:-0.41630374 6:-1.1300865 
1596.600952808531 1:-1.2090251 2:-0.93386189 3:1.494312 4:-0.222926 5:0.86726381 6:-0.68003212 
1896.1914107643713 1:-0.1328055 2:-0.93386189 3:1.0587033 4:-0.222926 5:0.43940796 6:0.22007658 
1896.1914107643713 1:0.94341413 2:1.2183895 3:-0.68373136 4:-1.5378651 5:-1.2720155 6:-1.1300865 
1896.1914107643713 1:0.94341413 2:0.14226382 3:-1.11934 4:-1.0995521 5:-1.6998713 6:-1.5801408 
499.58470760411188 1:-1.2090251 2:-0.93386189 3:-0.68373136 4:1.0920131 5:-1.2720155 6:0.67013092 
898.27038288014921 1:0.94341413 2:1.2183895 3:-1.11934 4:-1.0995521 5:-1.6998713 6:-1.5801408 
773.0247768311558 1:0.94341413 2:2.2945152 3:1.494312 4:1.5303261 5:0.86726381 6:1.1201853 
1896.1914107643713 1:0.94341413 2:1.2183895 3:-1.5549487 4:1.5303261 5:-1.2720155 6:1.1201853 
513.8823054974855 1:0.94341413 2:-0.93386189 3:-1.11934 4:1.0920131 5:-1.6998713 6:0.67013092 
537.04461891883614 1:-0.1328055 2:-0.93386189 3:-0.2481227 4:0.21538702 5:0.011552108 6:-0.22997777 
472.10012162981047 1:0.94341413 2:0.14226382 3:1.494312 4:1.5303261 5:0.86726381 6:1.1201853 
789.35031989358561 1:0.94341413 2:1.2183895 3:0.62309464 4:-0.66123903 5:0.86726381 6:-0.22997777 
1896.1914107643713 1:0.94341413 2:2.2945152 3:1.0587033 4:-1.0995521 5:1.2951197 6:-0.68003212 
328.28527096587766 1:-0.1328055 2:-0.93386189 3:-0.2481227 4:1.0920131 5:0.011552108 6:1.5702396 
1896.1914107643713 1:-0.1328055 2:-0.93386189 3:-1.11934 4:-0.66123903 5:-1.6998713 6:-0.22997777 
1896.1914107643713 1:0.94341413 2:2.2945152 3:-0.68373136 4:-1.0995521 5:-0.41630374 6:-1.5801408 
713.30068162222324 1:0.94341413 2:-0.93386189 3:1.0587033 4:1.0920131 5:1.2951197 6:1.5702396 
359.51334643489452 1:-2.2852448 2:-0.93386189 3:1.0587033 4:-0.222926 5:0.43940796 6:-0.68003212 
1661.497847480023 1:0.94341413 2:1.2183895 3:1.494312 4:-0.222926 5:0.86726381 6:-0.68003212 
1896.1914107643713 1:-1.2090251 2:-0.93386189 3:0.18748597 4:-0.66123903 5:-0.41630374 6:-0.22997777 
1896.1914107643713 1:0.94341413 2:-0.93386189 3:-0.2481227 4:-0.66123903 5:-0.8441596 6:-0.22997777 
1896.1914107643713 1:0.94341413 2:0.14226382 3:1.0587033 4:-1.5378651 5:0.43940796 6:-1.1300865 
1896.1914107643713 1:-0.1328055 2:-0.93386189 3:1.0587033 4:-1.0995521 5:1.2951197 6:-1.5801408 
1896.1914107643713 1:-0.1328055 2:0.14226382 3:0.18748597 4:-1.0995521 5:0.011552108 6:-1.5801408 
1896.1914107643713 1:-2.2852448 2:-0.93386189 3:1.0587033 4:-0.66123903 5:0.43940796 6:-0.22997777 
1896.1914107643713 1:0.94341413 2:-0.93386189 3:0.62309464 4:-1.5378651 5:0.86726381 6:-1.1300865 
1896.1914107643713 1:-1.2090251 2:-0.93386189 3:-1.5549487 4:0.21538702 5:-1.2720155 6:-0.22997777 
1896.1914107643713 1:-2.2852448 2:-0.93386189 3:-0.68373136 4:-0.66123903 5:-0.41630374 6:-0.22997777 
1896.1914107643713 1:0.94341413 2:-0.93386189 3:0.18748597 4:-0.66123903 5:0.43940796 6:-1.1300865 
690.59101441230132 1:0.94341413 2:-0.93386189 3:-0.68373136 4:0.21538702 5:-0.41630374 6:-0.22997777 
1896.1914107643713 1:-1.2090251 2:0.14226382 3:0.18748597 4:-1.5378651 5:-0.41630374 6:-1.1300865 
1130.6094582874582 1:0.94341413 2:1.2183895 3:0.62309464 4:0.65370004 5:0.011552108 6:0.22007658 
742.62757538802146 1:-0.1328055 2:1.2183895 3:1.0587033 4:-0.222926 5:1.2951197 6:-0.68003212 
1896.1914107643713 1:-0.1328055 2:-0.93386189 3:1.494312 4:-1.0995521 5:-1.6998713 6:-1.5801408 
1896.1914107643713 1:-0.1328055 2:0.14226382 3:0.18748597 4:-0.222926 5:0.43940796 6:-0.68003212 
1896.1914107643713 1:-1.2090251 2:0.14226382 3:1.494312 4:0.21538702 5:0.86726381 6:0.67013092 
579.82920992424488 1:-0.1328055 2:1.2183895 3:0.18748597 4:-1.5378651 5:-0.41630374 6:-1.5801408 
1896.1914107643713 1:0.94341413 2:0.14226382 3:-0.2481227 4:-0.222926 5:-0.8441596 6:0.22007658 
219.89809273402557 1:-2.2852448 2:-0.93386189 3:-0.68373136 4:-1.0995521 5:-0.8441596 6:-1.5801408 
1307.2842503382258 1:0.94341413 2:2.2945152 3:0.62309464 4:-0.222926 5:0.86726381 6:-0.68003212 
190.66595558989675 1:-1.2090251 2:-0.93386189 3:-1.5549487 4:-0.66123903 5:-1.2720155 6:-0.68003212 
1814.7765744895732 1:0.94341413 2:0.14226382 3:-1.5549487 4:1.0920131 5:-1.2720155 6:1.5702396 
49.937541239705595 1:0.94341413 2:2.2945152 3:-1.11934 4:-1.0995521 5:-1.6998713 6:-1.5801408 
1896.1914107643713 1:-1.2090251 2:-0.93386189 3:-0.68373136 4:-0.66123903 5:-0.41630374 6:-1.1300865 
1896.1914107643713 1:-1.2090251 2:-0.93386189 3:-0.2481227 4:-1.5378651 5:-0.41630374 6:-1.1300865 
658.51177487945176 1:-0.1328055 2:0.14226382 3:0.62309464 4:1.0920131 5:0.011552108 6:1.5702396 
1896.1914107643713 1:-2.2852448 2:-0.93386189 3:-0.2481227 4:-1.0995521 5:-0.8441596 6:-1.5801408 
1340.8602892912206 1:0.94341413 2:0.14226382 3:-1.5549487 4:-1.5378651 5:-1.2720155 6:-1.1300865 
1896.1914107643713 1:0.94341413 2:0.14226382 3:-1.11934 4:-1.5378651 5:-1.6998713 6:-1.1300865 
1780.9688116110601 1:-1.2090251 2:-0.93386189 3:0.18748597 4:1.0920131 5:0.43940796 6:1.5702396 
951.0726022082539 1:-0.1328055 2:1.2183895 3:1.0587033 4:1.5303261 5:1.2951197 6:1.1201853 
1896.1914107643713 1:0.94341413 2:1.2183895 3:-0.2481227 4:0.65370004 5:-0.8441596 6:0.22007658 
820.75578388575923 1:-2.2852448 2:-0.93386189 3:1.0587033 4:-1.0995521 5:1.2951197 6:-1.5801408 
964.59671624955115 1:0.94341413 2:-0.93386189 3:1.494312 4:-1.5378651 5:0.86726381 6:-1.1300865 
1896.1914107643713 1:-0.1328055 2:1.2183895 3:-1.5549487 4:-1.0995521 5:-1.2720155 6:-1.5801408 
1896.1914107643713 1:0.94341413 2:-0.93386189 3:-0.2481227 4:-0.222926 5:-0.8441596 6:0.22007658 
1876.6468514650546 1:0.94341413 2:0.14226382 3:0.62309464 4:-0.66123903 5:0.86726381 6:-0.22997777 
996.81170245674582 1:0.94341413 2:-0.93386189 3:0.62309464 4:-0.222926 5:0.011552108 6:0.22007658 
1896.1914107643713 1:-0.1328055 2:-0.93386189 3:0.62309464 4:-0.66123903 5:0.011552108 6:-1.1300865 
1835.8783800125871 1:0.94341413 2:2.2945152 3:1.0587033 4:-0.66123903 5:0.43940796 6:-0.22997777 
1896.1914107643713 1:-1.2090251 2:0.14226382 3:-0.2481227 4:-0.66123903 5:0.011552108 6:-1.1300865 
1896.1914107643713 1:-1.2090251 2:-0.93386189 3:-0.2481227 4:-1.0995521 5:0.011552108 6:-1.5801408 
1896.1914107643713 1:0.94341413 2:1.2183895 3:-1.11934 4:0.21538702 5:-0.8441596 6:0.67013092 
33.512227794367362 1:-0.1328055 2:-0.93386189 3:-1.11934 4:1.0920131 5:-0.8441596 6:1.5702396 
1896.1914107643713 1:0.94341413 2:0.14226382 3:0.18748597 4:-0.222926 5:0.43940796 6:-0.68003212 
262.36083528904993 1:0.94341413 2:1.2183895 3:-1.5549487 4:0.65370004 5:-1.2720155 6:1.1201853 
1896.1914107643713 1:0.94341413 2:1.2183895 3:-1.11934 4:-0.222926 5:-1.6998713 6:-0.68003212 
1896.1914107643713 1:-1.2090251 2:-0.93386189 3:-1.5549487 4:-0.222926 5:-1.2720155 6:0.22007658 
1896.1914107643713 1:-0.1328055 2:1.2183895 3:0.18748597 4:-1.0995521 5:0.011552108 6:-1.5801408 
23.846197609675304 1:-1.2090251 2:-0.93386189 3:1.0587033 4:-0.66123903 5:1.2951197 6:-0.22997777 
1896.1914107643713 1:-1.2090251 2:0.14226382 3:0.62309464 4:-1.5378651 5:0.86726381 6:-1.1300865 
-1896.1914107643713 1:-2.2852448 2:-0.93386189 3:1.494312 4:-0.66123903 5:0.43940796 6:-0.68003212 
-470.77903365150576 1:0.94341413 2:-0.93386189 3:1.494312 4:1.5303261 5:0.43940796 6:1.5702396 
-229.48029580624259 1:0.94341413 2:1.2183895 3:0.18748597 4:0.65370004 5:0.86726381 6:0.67013092 
-1137.7339856149965 1:-0.1328055 2:0.14226382 3:-1.11934 4:0.65370004 5:-1.2720155 6:1.5702396 
-1204.4645985717486 1:0.94341413 2:1.2183895 3:-1.11934 4:1.5303261 5:-1.2720155 6:0.67013092 
-1896.1914107643713 1:0.94341413 2:-0.93386189 3:0.62309464 4:-0.222926 5:-0.41630374 6:-0.22997777 
-595.17243976054999 1:-0.1328055 2:1.2183895 3:1.494312 4:0.21538702 5:0.43940796 6:0.22007658 
-1896.1914107643713 1:0.94341413 2:2.2945152 3:0.62309464 4:0.65370004 5:0.43940796 6:-0.22997777 
-1896.1914107643713 1:0.94341413 2:0.14226382 3:-0.2481227 4:-0.66123903 5:-0.41630374 6:-0.22997777 
-384.21928283615699 1:-2.2852448 2:-0.93386189 3:0.62309464 4:0.65370004 5:1.2951197 6:0.67013092 
-797.19597979950345 1:-0.1328055 2:0.14226382 3:0.62309464 4:0.65370004 5:1.2951197 6:0.67013092 
-1896.1914107643713 1:-0.1328055 2:-0.93386189 3:1.0587033 4:-1.0995521 5:0.011552108 6:-1.1300865 
-1805.0305053688076 1:0.94341413 2:1.2183895 3:-0.68373136 4:-0.66123903 5:-1.6998713 6:-0.68003212 
-1896.1914107643713 1:-0.1328055 2:1.2183895 3:1.0587033 4:-1.0995521 5:0.86726381 6:-0.22997777 
-1207.5497160753837 1:-1.2090251 2:0.14226382 3:0.62309464 4:-1.0995521 5:1.2951197 6:-1.1300865 
-282.69853754305819 1:-0.1328055 2:-0.93386189 3:-1.11934 4:0.65370004 5:-1.2720155 6:1.5702396 
-1896.1914107643713 1:-1.2090251 2:-0.93386189 3:-0.68373136 4:-1.0995521 5:-0.41630374 6:-1.5801408 
-1009.6349491910674 1:-0.1328055 2:0.14226382 3:-0.68373136 4:1.5303261 5:-1.6998713 6:1.5702396 
-777.63472567594033 1:-1.2090251 2:0.14226382 3:1.494312 4:1.5303261 5:1.2951197 6:0.67013092 
-1896.1914107643713 1:-2.2852448 2:-0.93386189 3:0.62309464 4:0.21538702 5:0.43940796 6:-0.68003212 
-168.74993036542779 1:0.94341413 2:0.14226382 3:1.0587033 4:0.21538702 5:0.86726381 6:1.1201853 
-118.62748431126415 1:0.94341413 2:2.2945152 3:1.494312 4:-0.222926 5:1.2951197 6:-1.1300865 
-723.76189158460352 1:-0.1328055 2:0.14226382 3:0.62309464 4:1.5303261 5:1.2951197 6:1.5702396 
-1896.1914107643713 1:-1.2090251 2:-0.93386189 3:-1.5549487 4:1.0920131 5:-0.8441596 6:1.1201853 
-1896.1914107643713 1:-1.2090251 2:-0.93386189 3:-0.68373136 4:-1.0995521 5:-1.2720155 6:-0.68003212 
-216.21696722467777 1:-1.2090251 2:-0.93386189 3:-0.68373136 4:-0.222926 5:-1.6998713 6:-0.22997777 
-1896.1914107643713 1:-0.1328055 2:1.2183895 3:-1.11934 4:-1.0995521 5:-0.8441596 6:-1.5801408 
-1896.1914107643713 1:-0.1328055 2:-0.93386189 3:-1.5549487 4:0.21538702 5:-0.8441596 6:0.22007658 
-406.37908344142312 1:0.94341413 2:-0.93386189 3:-1.5549487 4:-0.66123903 5:-1.6998713 6:-1.5801408 
-1896.1914107643713 1:0.94341413 2:-0.93386189 3:1.0587033 4:0.65370004 5:0.86726381 6:1.5702396 
-0.011168975201392383 1:0.94341413 2:0.14226382 3:0.18748597 4:0.65370004 5:0.011552108 6:1.5702396 
-1896.1914107643713 1:-0.1328055 2:-0.93386189 3:-0.2481227 4:-1.0995521 5:0.011552108 6:-1.1300865 
-617.81241450425921 1:0.94341413 2:2.2945152 3:1.494312 4:1.0920131 5:1.2951197 6:0.22007658 
-1896.1914107643713 1:-1.2090251 2:-0.93386189 3:-0.2481227 4:0.21538702 5:-1.2720155 6:0.22007658 
-1896.1914107643713 1:0.94341413 2:1.2183895 3:0.18748597 4:-1.0995521 5:-0.41630374 6:-1.5801408 
-394.99667571250825 1:0.94341413 2:-0.93386189 3:0.18748597 4:0.65370004 5:0.011552108 6:1.5702396 
-1896.1914107643713 1:-1.2090251 2:-0.93386189 3:0.62309464 4:-0.66123903 5:0.43940796 6:-1.5801408 
-1896.1914107643713 1:-2.2852448 2:-0.93386189 3:0.18748597 4:-0.66123903 5:0.86726381 6:-0.68003212 
-1304.5965654940092 1:0.94341413 2:1.2183895 3:-1.11934 4:0.65370004 5:-1.2720155 6:1.5702396 
-283.25690112904459 1:0.94341413 2:2.2945152 3:-0.2481227 4:-1.5378651 5:-1.2720155 6:-1.5801408 
-1896.1914107643713 1:-0.1328055 2:-0.93386189 3:-0.68373136 4:-1.0995521 5:-0.41630374 6:-0.68003212 
-199.50306974962413 1:0.94341413 2:-0.93386189 3:1.0587033 4:1.5303261 5:0.011552108 6:1.5702396 
-1896.1914107643713 1:0.94341413 2:1.2183895 3:1.494312 4:-0.222926 5:0.43940796 6:-0.22997777 
-707.61097446460997 1:0.94341413 2:1.2183895 3:1.494312 4:0.21538702 5:0.43940796 6:0.22007658 
-1018.0088168032127 1:-0.1328055 2:0.14226382 3:1.494312 4:-0.66123903 5:1.2951197 6:-1.5801408 
-1896.1914107643713 1:0.94341413 2:0.14226382 3:0.18748597 4:-0.66123903 5:0.43940796 6:-0.22997777 
-1896.1914107643713 1:0.94341413 2:1.2183895 3:-0.68373136 4:-1.0995521 5:-0.8441596 6:-1.5801408 
-1896.1914107643713 1:0.94341413 2:1.2183895 3:-0.68373136 4:-0.222926 5:-0.8441596 6:0.22007658 
-1896.1914107643713 1:-0.1328055 2:0.14226382 3:-0.2481227 4:-0.66123903 5:0.011552108 6:-0.68003212 
-402.87267049704121 1:-2.2852448 2:-0.93386189 3:0.62309464 4:-0.222926 5:0.43940796 6:0.67013092 
-1896.1914107643713 1:0.94341413 2:-0.93386189 3:-1.5549487 4:-0.222926 5:-0.8441596 6:-0.22997777 
-1875.4169557899388 1:-1.2090251 2:0.14226382 3:-0.68373136 4:-1.5378651 5:-0.41630374 6:-1.1300865 
-1896.1914107643713 1:-2.2852448 2:-0.93386189 3:-0.2481227 4:-0.222926 5:0.43940796 6:-0.22997777 
-906.33032120183543 1:-0.1328055 2:-0.93386189 3:-1.11934 4:0.65370004 5:-0.41630374 6:0.67013092 
-1896.1914107643713 1:0.94341413 2:0.14226382 3:-1.11934 4:0.65370004 5:-1.2720155 6:-0.22997777 
-1896.1914107643713 1:-1.2090251 2:0.14226382 3:-0.68373136 4:-0.66123903 5:-0.41630374 6:-0.68003212 
-1896.1914107643713 1:0.94341413 2:2.2945152 3:1.494312 4:-0.66123903 5:0.43940796 6:-0.68003212 
-371.82959017203996 1:-0.1328055 2:0.14226382 3:-1.11934 4:1.5303261 5:-1.2720155 6:0.67013092 
-1896.1914107643713 1:-2.2852448 2:-0.93386189 3:0.62309464 4:-1.5378651 5:0.43940796 6:-0.68003212 
-1896.1914107643713 1:-2.2852448 2:-0.93386189 3:0.18748597 4:-1.0995521 5:-0.8441596 6:-1.1300865 
-1896.1914107643713 1:-0.1328055 2:1.2183895 3:-0.2481227 4:-0.66123903 5:0.011552108 6:-0.68003212 
-107.41523615667045 1:-0.1328055 2:-0.93386189 3:0.62309464 4:-1.0995521 5:1.2951197 6:-1.1300865 
-1896.1914107643713 1:0.94341413 2:0.14226382 3:0.18748597 4:-1.0995521 5:0.43940796 6:-1.5801408 
-1896.1914107643713 1:0.94341413 2:0.14226382 3:-0.68373136 4:-0.66123903 5:-0.41630374 6:-0.22997777 
-1883.5897489543192 1:-2.2852448 2:-0.93386189 3:1.0587033 4:0.21538702 5:0.86726381 6:1.1201853 
-1896.1914107643713 1:0.94341413 2:-0.93386189 3:-0.2481227 4:-1.0995521 5:-0.8441596 6:-0.68003212 
-650.26609863727958 1:0.94341413 2:0.14226382 3:-1.11934 4:1.0920131 5:-1.2720155 6:0.22007658 
-1896.1914107643713 1:-0.1328055 2:0.14226382 3:1.0587033 4:-1.5378651 5:0.011552108 6:-1.5801408 
-1185.4042221834118 1:-1.2090251 2:-0.93386189 3:1.0587033 4:-1.5378651 5:0.86726381 6:-0.68003212 
-206.34510169939196 1:-0.1328055 2:0.14226382 3:1.494312 4:-1.5378651 5:0.43940796 6:-1.1300865 
-4.3167704119642831 1:0.94341413 2:1.2183895 3:-1.5549487 4:-1.5378651 5:-1.2720155 6:-0.68003212 
-1896.1914107643713 1:0.94341413 2:-0.93386189 3:-0.2481227 4:-1.0995521 5:-0.41630374 6:-0.68003212 
-1057.0631515617322 1:-0.1328055 2:-0.93386189 3:1.0587033 4:0.65370004 5:0.86726381 6:-0.22997777 
-1896.1914107643713 1:-0.1328055 2:0.14226382 3:1.0587033 4:-1.0995521 5:0.011552108 6:-1.1300865 
-2.6164117941869889 1:0.94341413 2:2.2945152 3:-1.11934 4:-1.5378651 5:-0.41630374 6:-1.1300865 
-1896.1914107643713 1:-1.2090251 2:-0.93386189 3:1.0587033 4:-0.66123903 5:0.011552108 6:-0.68003212 
-1694.2294664056278 1:0.94341413 2:1.2183895 3:-1.5549487 4:1.0920131 5:-0.8441596 6:1.1201853 
-982.25588763032431 1:0.94341413 2:2.2945152 3:1.0587033 4:-1.0995521 5:0.86726381 6:-0.22997777 
-1896.1914107643713 1:-0.1328055 2:1.2183895 3:-1.11934 4:-1.0995521 5:-1.2720155 6:-1.5801408 
-512.81067370359381 1:-0.1328055 2:1.2183895 3:1.0587033 4:1.0920131 5:0.86726381 6:0.22007658 
-1896.1914107643713 1:0.94341413 2:1.2183895 3:-1.5549487 4:-1.0995521 5:-1.6998713 6:-0.22997777 
-1896.1914107643713 1:0.94341413 2:0.14226382 3:-1.5549487 4:-1.0995521 5:-1.6998713 6:-0.22997777 
-80.082942909586947 1:-1.2090251 2:0.14226382 3:1.0587033 4:-0.222926 5:0.86726381 6:0.67013092 
-743.63980930934565 1:-1.2090251 2:-0.93386189 3:-0.68373136 4:0.65370004 5:-0.8441596 6:-0.22997777 
-377.56693941789746 1:0.94341413 2:0.14226382 3:-1.11934 4:0.21538702 5:-1.2720155 6:1.1201853 
-1896.1914107643713 1:0.94341413 2:1.2183895 3:-1.5549487 4:0.21538702 5:-1.6998713 6:-0.68003212 
-1896.1914107643713 1:0.94341413 2:1.2183895 3:-0.68373136 4:0.21538702 5:-1.6998713 6:0.22007658 
-1867.4113787937395 1:-2.2852448 2:-0.93386189 3:-0.68373136 4:-0.66123903 5:0.011552108 6:-0.68003212 
-1238.7132929084844 1:0.94341413 2:-0.93386189 3:1.494312 4:-1.0995521 5:1.2951197 6:-0.22997777 
-1896.1914107643713 1:0.94341413 2:0.14226382 3:-0.68373136 4:-0.66123903 5:-1.6998713 6:-0.68003212 
-1896.1914107643713 1:-0.1328055 2:-0.93386189 3:-0.2481227 4:0.65370004 5:-1.2720155 6:0.67013092 
-1398.2969896027214 1:-1.2090251 2:-0.93386189 3:1.494312 4:1.0920131 5:0.43940796 6:1.1201853 
-371.83613853167617 1:-0.1328055 2:0.14226382 3:0.62309464 4:0.21538702 5:-0.41630374 6:0.22007658 
-1896.1914107643713 1:0.94341413 2:1.2183895 3:0.18748597 4:-0.66123903 5:0.43940796 6:-0.68003212 
-1447.6335550711904 1:-1.2090251 2:-0.93386189 3:0.18748597 4:-0.222926 5:0.011552108 6:-1.1300865 
-301.56593154436467 1:-2.2852448 2:-0.93386189 3:0.62309464 4:-1.5378651 5:-0.41630374 6:-1.1300865 
-1896.1914107643713 1:-1.2090251 2:0.14226382 3:1.0587033 4:-0.222926 5:0.011552108 6:-0.22997777 
-1896.1914107643713 1:0.94341413 2:2.2945152 3:0.62309464 4:-1.0995521 5:1.2951197 6:-1.1300865 
-1896.1914107643713 1:0.94341413 2:-0.93386189 3:0.18748597 4:-1.5378651 5:0.43940796 6:-1.5801408 
-1330.2195821814573 1:-1.2090251 2:-0.93386189 3:-0.68373136 4:0.65370004 5:-0.8441596 6:1.5702396 
-1896.1914107643713 1:0.94341413 2:2.2945152 3:0.62309464 4:-1.5378651 5:0.43940796 6:-0.68003212 
-307.19896284198546 1:-0.1328055 2:0.14226382 3:-1.5549487 4:0.21538702 5:-1.6998713 6:1.1201853 
-1896.1914107643713 1:-0.1328055 2:-0.93386189 3:-1.11934 4:-1.0995521 5:-1.6998713 6:-0.68003212 
-1896.1914107643713 1:-0.1328055 2:0.14226382 3:0.62309464 4:-1.0995521 5:1.2951197 6:-1.1300865 
-1896.1914107643713 1:-0.1328055 2:-0.93386189 3:-0.2481227 4:-0.222926 5:-1.2720155 6:-0.22997777 
-1107.2451895967911 1:0.94341413 2:1.2183895 3:1.0587033 4:1.0920131 5:0.011552108 6:1.1201853 
-1896.1914107643713 1:0.94341413 2:1.2183895 3:-0.68373136 4:-1.0995521 5:-1.2720155 6:-1.5801408 
-1320.2371906163096 1:0.94341413 2:-0.93386189 3:-1.5549487 4:-0.66123903 5:-1.6998713 6:0.22007658 
-1896.1914107643713 1:0.94341413 2:-0.93386189 3:-0.68373136 4:-1.5378651 5:-1.2720155 6:-1.5801408 
-1896.1914107643713 1:-1.2090251 2:0.14226382 3:-0.68373136 4:-1.0995521 5:-0.41630374 6:-1.5801408 
-342.85125408653477 1:0.94341413 2:-0.93386189 3:-0.68373136 4:-1.0995521 5:-1.2720155 6:-1.5801408 
-1734.1510330414699 1:-2.2852448 2:-0.93386189 3:1.494312 4:0.65370004 5:1.2951197 6:1.5702396 
-1896.1914107643713 1:-0.1328055 2:1.2183895 3:-0.2481227 4:-1.0995521 5:0.011552108 6:-1.5801408 
-451.69875974480686 1:-0.1328055 2:1.2183895 3:0.62309464 4:-0.222926 5:0.43940796 6:0.67013092 
-239.24805603504316 1:-0.1328055 2:-0.93386189 3:0.62309464 4:1.5303261 5:0.43940796 6:0.67013092 
-1896.1914107643713 1:0.94341413 2:1.2183895 3:1.0587033 4:-1.0995521 5:0.86726381 6:-0.22997777 
-1494.0835876674644 1:-1.2090251 2:-0.93386189 3:-1.5549487 4:0.65370004 5:-1.6998713 6:-0.22997777 
-1208.246284404371 1:0.94341413 2:-0.93386189 3:0.18748597 4:1.5303261 5:0.011552108 6:0.67013092 
-673.17204828515787 1:-1.2090251 2:-0.93386189 3:0.62309464 4:1.0920131 5:1.2951197 6:1.1201853 
-625.16070313316231 1:0.94341413 2:0.14226382 3:1.0587033 4:0.65370004 5:0.011552108 6:0.67013092 
-1896.1914107643713 1:-1.2090251 2:-0.93386189 3:-1.5549487 4:-1.0995521 5:-1.6998713 6:-0.68003212 
-1896.1914107643713 1:-0.1328055 2:0.14226382 3:0.62309464 4:-0.66123903 5:1.2951197 6:-0.68003212 
-1896.1914107643713 1:-0.1328055 2:-0.93386189 3:1.494312 4:-0.66123903 5:0.43940796 6:-0.68003212 
-1896.1914107643713 1:0.94341413 2:0.14226382 3:-0.68373136 4:0.21538702 5:-1.6998713 6:0.22007658 
-1896.1914107643713 1:0.94341413 2:0.14226382 3:0.62309464 4:-0.66123903 5:1.2951197 6:-0.68003212 
-648.88851485499765 1:-0.1328055 2:-0.93386189 3:-1.11934 4:-1.5378651 5:-1.6998713 6:-1.1300865 
-1896.1914107643713 1:0.94341413 2:0.14226382 3:-1.11934 4:0.21538702 5:-0.41630374 6:0.22007658 
-1896.1914107643713 1:0.94341413 2:-0.93386189 3:1.0587033 4:0.21538702 5:0.86726381 6:-0.68003212 
-94.634153945191429 1:0.94341413 2:-0.93386189 3:-0.68373136 4:1.5303261 5:-1.6998713 6:1.5702396 
-1896.1914107643713 1:0.94341413 2:0.14226382 3:-0.68373136 4:-1.0995521 5:-1.2720155 6:-1.5801408 
-1896.1914107643713 1:0.94341413 2:2.2945152 3:0.18748597 4:-0.66123903 5:0.43940796 6:-1.1300865 
